{"category": "ham", "to_address": "r-help@stat.math.ethz.ch", "from_address": "Silvia Lomascolo <slomascolo@zoo.ufl.edu>", "subject": "[R] Problem with rpart", "body": "\nI work on Windows, R version 2.4.1.  I'm very new with R!\n\nI am trying to build a classification tree using rpart but, although the\nmatrix has 108 variables, the program builds a tree with only one split\nusing one variable!  I know it is probable that only one variable is\ninformative, but I think it's unlikely.  I was wondering if someone can help\nme identify if I'm doing something wrong because I can't see it, nor could I\nfind it in the help or in this forum.\n\nI want to see whether I can predict disperser type (5 categories) of a\nspecies given the volatile compounds that the fruits emit (108 volatiles) \nI am writing:\n\n>dispvol.x<- read.table ('C:\\\\Documents and\nSettings\\\\silvia\\\\...\\\\volatile_disperser_matrix.txt', header=T)\n>dispvol.df<- as.data.frame (dispvol.x)\n>attach (dispvol.df) #I think I need to do this so the variables are\nidentified when I write the regression equation\n>dispvol.ctree <- rpart (disperser~\tP3.70\t+P4.29\t+P5.05\t+...\t+P30.99\t+P32.25\n+TotArea, >data= dispvol.df, method='class')\n\nand I get the following output:\n\nn= 28 \n\nnode), split, n, loss, yval, (yprob)\n      * denotes terminal node\n\n1) root 28 15 non (0.036 0.32 0.071 0.11 0.46)  \n  2) P10.01>=1.185 10  4 bat (0.1 0.6 0.2 0 0.1) *\n  3) P10.01< 1.185 18  6 non (0 0.17 0 0.17 0.67) *\n\nThere is nothing special about P10.01 that I can see in my data and I don't\nknow why it chooses that variables and stops there!\n\nMy matrix looks something like this (except, with a lot more variables)\n\ndisperser\tP3.70\tP4.29\tP6.45\tP6.55\tP10.01\tP10.15\tP10.18\tTotArea\nban\t0.00\t0.00\t1.34\t0.00\t1.49\t0.00\t0.00\t2.83\nnon\t0.00\t0.00\t0.00\t152.80\t0.00\t14.31\t0.00\t167.11\nbat\t0.00\t0.00\t0.00\t131.56\t0.65\t0.00\t0.00\t132.21\nbat\t0.00\t0.00\t5.05\t0.00\t13.01\t6.85\t0.00\t24.90\nnon\t0.00\t0.00\t72.65\t103.26\t4.10\t0.00\t0.00\t180.02\nnon\t0.00\t0.00\t0.00\t0.00\t0.00\t0.00\t0.00\t0.00\nbat\t1.23\t0.00\t0.48\t0.89\t0.25\t0.00\t0.00\t2.85\nbat\t0.00\t0.00\t0.00\t0.00\t0.00\t0.00\t0.00\t0.00\nnon\t0.00\t0.00\t0.00\t0.00\t1.06\t0.00\t0.00\t1.06\nbat\t0.00\t0.00\t0.00\t0.00\t28.69\t0.00\t21.33\t50.02\nmix\t0.00\t0.00\t0.00\t0.00\t0.00\t0.00\t0.00\t0.00\nnon\t0.00\t0.00\t0.00\t0.00\t0.00\t0.00\t0.00\t0.00\nnon\t0.00\t0.00\t0.00\t0.00\t0.00\t0.00\t0.00\t0.00\nnon\t0.00\t0.00\t0.00\t0.00\t1.15\t0.00\t0.00\t1.15\nnon\t0.00\t0.00\t0.00\t0.00\t0.00\t0.00\t0.00\t0.00\nnon\t0.00\t0.82\t0.00\t1.65\t0.00\t0.00\t0.00\t2.47\nbat\t0.00\t0.00\t133.24\t0.00\t3.13\t0.00\t0.00\t136.37\nbir\t0.00\t0.00\t11.08\t3.16\t1.79\t2.09\t0.48\t18.61\nnon\t0.00\t0.00\t0.00\t0.00\t0.00\t0.00\t0.00\t0.00\nmix\t0.00\t0.00\t0.00\t0.00\t0.00\t0.00\t0.00\t0.00\nbat\t0.00\t0.00\t0.00\t0.00\t1.31\t0.00\t0.00\t1.31\nnon\t0.00\t0.00\t0.00\t0.00\t0.00\t0.00\t1.23\t1.23\nbat\t0.00\t0.00\t1.81\t0.00\t2.84\t0.00\t0.00\t4.65\nnon\t0.00\t0.00\t1.18\t0.00\t0.73\t0.00\t0.00\t1.91\nbir\t0.00\t0.00\t0.00\t0.00\t1.40\t0.00\t0.00\t1.40\nbat\t0.00\t0.00\t8.16\t1.50\t1.22\t0.00\t0.00\t10.88\nmix\t0.00\t0.55\t0.00\t0.00\t0.00\t0.00\t0.00\t0.55\nnon\t0.00\t0.00\t0.00\t0.00\t0.00\t0.00\t0.00\t0.00\n\nThanks! Silvia.\n\n-- \nView this message in context: http://www.nabble.com/Problem-with-rpart-tf3818436.html#a10810625\nSent from the R help mailing list archive at Nabble.com.\n\n______________________________________________\nR-help@stat.math.ethz.ch mailing list\nhttps://stat.ethz.ch/mailman/listinfo/r-help\nPLEASE do read the posting guide http://www.R-project.org/posting-guide.html\nand provide commented, minimal, self-contained, reproducible code.\n\n"}